{"weights": {"input_layer": [[0.016700422391295433, 0.03447801619768143, 0.8753050565719604, -1.5651495456695557], [-1.7554045915603638, -1.6802862882614136, 0.014845136553049088, -0.8132311701774597], [-1.9558154344558716, 0.9247426986694336, 0.4702780842781067, -0.4753321409225464], [-0.16351093351840973, -1.418379306793213, 0.029842756688594818, 0.17941635847091675]], "hidden_layer_1": [[-1.2644915580749512, -1.8349882364273071, 1.484197974205017, 1.3576046228408813], [0.5783392786979675, 0.5195700526237488, -0.8087124824523926, 0.33125069737434387], [0.9656322598457336, 1.6293120384216309, -1.2265000343322754, -1.0754138231277466], [-0.45700395107269287, 0.44828280806541443, 0.3610658049583435, -0.32950395345687866]], "hidden_layer_2": [[-2.594595432281494, 0.8290677070617676, 2.118795871734619, -0.3729625642299652], [1.2719907760620117, -0.7956380248069763, -1.2005853652954102, -0.451565682888031]], "output_layer": [[-3.529367208480835, 1.9377576112747192]]}, "biases": {"input_layer": [0.7748205661773682, 0.06822770088911057, -0.23277343809604645, 1.2453244924545288], "hidden_layer_1": [-0.10565515607595444, -0.04617352411150932, 0.5724237561225891, -0.40642642974853516], "hidden_layer_2": [0.7708339095115662, 0.7355878949165344], "output_layer": [0.4011756479740143]}}