{"weights": {"input_layer": [[-0.3328360319137573, -0.8716064095497131, -0.14133170247077942, -0.2734270691871643], [-0.2452044039964676, 1.4221174716949463, 0.26214826107025146, 0.13479024171829224], [-0.24037161469459534, -0.04739188030362129, 0.012132089585065842, 0.1455869972705841], [0.00420866534113884, 1.3257862329483032, -0.11663546413183212, 0.33627086877822876]], "hidden_layer_1": [[0.2331887036561966, -0.41632285714149475, 0.25085315108299255, -0.42262202501296997], [-0.5684151649475098, 1.255872368812561, -0.04821624234318733, 1.3058321475982666], [0.4392233192920685, -0.820708155632019, -0.18548482656478882, -0.17787745594978333], [-0.4334980249404907, -0.25769394636154175, 0.41597217321395874, -0.011197447776794434]], "hidden_layer_2": [[-0.7264389395713806, 1.8436510562896729, -0.9557521343231201, 0.3248724937438965], [-0.4355931878089905, 0.2983052730560303, -0.06833596527576447, 0.2773549556732178]], "output_layer": [[-2.146035671234131, 0.02500993385910988]]}, "biases": {"input_layer": [0.571011483669281, 0.24134276807308197, 0.3734974265098572, 0.37017109990119934], "hidden_layer_1": [0.40941449999809265, 0.2822412848472595, 0.6666600108146667, -0.3887927532196045], "hidden_layer_2": [0.41885221004486084, -0.3619621992111206], "output_layer": [3.6681392192840576]}}