{"weights": {"input_layer": [[0.3582570254802704, -0.1936086267232895, 0.4802907109260559, -1.7071897983551025], [-1.5171854496002197, 0.0582488551735878, 0.7644606828689575, -0.24711643159389496], [1.5835803747177124, -0.612258791923523, -0.7621297836303711, 0.04512379318475723], [-0.5695123672485352, -0.13513459265232086, 0.47482702136039734, -0.6029452085494995]], "hidden_layer_1": [[-0.7547279596328735, 1.3934931755065918, -0.9674642086029053, 0.038800615817308426], [0.5209744572639465, -0.14586606621742249, 0.028106871992349625, 1.2419644594192505], [0.2205001264810562, -0.2099216729402542, 0.03224305808544159, -0.17537756264209747], [-1.3650991916656494, 0.8187261819839478, 1.7454297542572021, -0.5714107751846313]], "hidden_layer_2": [[-0.05001425743103027, -0.1240033507347107, -0.4927976429462433, 0.2659655809402466], [-1.8756195306777954, 1.4584852457046509, 0.28786081075668335, -2.06854248046875]], "output_layer": [[0.14613349735736847, -3.150500535964966]]}, "biases": {"input_layer": [0.2120274156332016, 0.20446404814720154, 1.0384163856506348, 1.019178032875061], "hidden_layer_1": [0.7341052293777466, 1.043532371520996, 0.5266576409339905, -0.26463866233825684], "hidden_layer_2": [0.01673288829624653, 0.773975133895874], "output_layer": [2.959251642227173]}}