{"weights": {"input_layer": [[-0.164935901761055, 0.2838146388530731, 0.7539966106414795, 0.08870406448841095], [-0.31896308064460754, 0.3762146532535553, 0.7096938490867615, 0.1762542873620987], [-1.2858339548110962, -0.5856320261955261, 0.8546891808509827, -0.07318439334630966], [-0.09010417014360428, 0.26001983880996704, 0.038055241107940674, 0.020203838124871254]], "hidden_layer_1": [[-0.4523129463195801, -0.3365185260772705, -0.265680730342865, -0.22485625743865967], [-0.5401403903961182, -0.27187493443489075, 1.105955958366394, -0.4041181802749634], [0.06026351451873779, -0.09787017107009888, -0.2897777557373047, -0.4853976368904114], [0.41984638571739197, 0.9563294649124146, -1.2879647016525269, -0.049389809370040894]], "hidden_layer_2": [[-0.25720471143722534, 1.6580580472946167, 0.4653562903404236, -1.3168346881866455], [-0.22980940341949463, 0.469428151845932, 0.3356891870498657, -0.7724810838699341]], "output_layer": [[2.197103500366211, 1.112777829170227]]}, "biases": {"input_layer": [0.09198789298534393, 0.6104280352592468, -0.5838581919670105, 0.5000152587890625], "hidden_layer_1": [-0.07540035247802734, 1.133742094039917, -0.41124218702316284, 0.14896352589130402], "hidden_layer_2": [0.8830084800720215, 0.7328369617462158], "output_layer": [-2.864528179168701]}}