{"weights": {"input_layer": [[-0.4113297760486603, -0.2448922097682953, -0.27313268184661865, 0.1502639651298523], [-0.04162820801138878, -1.7108303308486938, -0.04654208943247795, 0.05901423469185829], [-0.13085977733135223, -0.046876851469278336, 0.09467006474733353, 0.3670559823513031], [-0.09738212823867798, 2.3477530479431152, 0.40308114886283875, 1.2750616073608398]], "hidden_layer_1": [[0.05314037948846817, 0.8705390095710754, 0.20602066814899445, 1.061423659324646], [-0.2251281887292862, 0.13752754032611847, -0.07208489626646042, 2.4461557865142822], [0.21543855965137482, -1.2920136451721191, -0.5469428300857544, -0.37255385518074036], [0.32178056240081787, -0.11910098791122437, -0.39675402641296387, -0.19038426876068115]], "hidden_layer_2": [[1.441919207572937, -2.3395798206329346, -1.459007740020752, -0.08620786666870117], [-0.2914706766605377, 1.0905057191848755, 0.7182149291038513, 0.21120673418045044]], "output_layer": [[3.3592660427093506, -1.487631916999817]]}, "biases": {"input_layer": [-0.23383092880249023, -0.058847587555646896, 0.03686688095331192, 0.02690294198691845], "hidden_layer_1": [0.6122702360153198, -1.0024713277816772, 0.8983784317970276, -0.1651526689529419], "hidden_layer_2": [1.360111117362976, 0.7912316918373108], "output_layer": [-2.022993803024292]}}